encog,BasicNetwork,java,3.4.0,1,1544143895385
[BASIC]
[BASIC:PARAMS]
[BASIC:NETWORK]
beginTraining=0
connectionLimit=0
contextTargetOffset=0,0,0,0,0
contextTargetSize=0,0,0,0,0
endTraining=4
hasContext=f
inputCount=2
layerCounts=2,11,11,11,3
layerFeedCounts=1,10,10,10,2
layerContextCount=0,0,0,0,0
layerIndex=0,2,13,24,35
output=-0.9733253059,1,-0.2068829475,-0.9995656084,-0.9033260301,0.5212113107,0.5029977176,-0.6905303901,-0.9107009249,0.745332919,-0.3543362734,-0.8910566009,1,-0.8093538994,-0.8492789264,-0.3740730525,-0.4902332853,-0.7247659363,0.1082846062,0.135981464,0.2961270441,0.8955129614,-0.2291490183,1,-0.1170593625,-0.1795015795,0.8046527052,-0.6047753407,0.7580131225,-0.1315081646,-0.0975573534,-0.3456045566,-0.6575869249,0.2444036165,1,0.8146274149,0.8817444786,1
outputCount=1
weightIndex=0,11,121,231,261
weights=0.7172385529,1.9013976284,0.4975716228,-0.0825156298,1.7064432067,-0.9825603151,0.9394555979,0.1012325244,0.4196099731,0.292896089,0.0425099408,0.2670192643,0.297865479,0.5293795097,-0.5523312074,-0.3831554476,0.3230318081,-0.7123705081,-0.1913084235,-0.7132215127,-0.9839182649,0.4405053118,0.9740617478,0.5484963433,1.575236652,0.1456662263,1.7675898467,0.7262423502,-0.4746684277,-0.0736474074,-0.2721970604,-0.6500646582,-0.9187985126,0.1929125036,-0.0134125085,-0.6369615449,0.789478464,0.208058136,0.7387460253,-0.0017345509,-0.2389550331,-0.1832196355,0.832274497,-0.6999190155,0.2794421914,0.8323063386,0.0682010054,-0.518195004,-0.4516145881,-0.8476791768,-0.0342992215,-0.3590128243,0.4225267518,-0.0675387505,0.7641035903,0.2835647409,-0.1733091037,0.7199732081,-0.7183759483,-1.6316546521,0.8601728439,1.3067995693,-0.9127960728,-0.3292220165,0.003836482,-0.3346280358,-0.5814469917,-0.87012775,1.0972598398,0.7384646502,1.3126687733,0.7771255176,0.3375637441,-0.4012961411,0.064489185,0.3327680244,-0.3274094386,-0.293490084,0.9106061949,-0.4858937952,0.6467585782,0.3545173016,-0.0332398702,0.1893581275,-0.8180177675,0.2317663197,0.5815281731,-0.4577567497,-0.4603817965,-0.821141927,0.603204311,-0.2977115721,0.3376736054,0.0622348242,-0.9002816607,-0.7515074936,-0.4396414857,-0.7637764187,0.7737203527,-0.3978574026,-0.252735375,0.6766118005,0.2615712409,-0.2763581198,-0.3332424319,0.644708339,-0.0465028003,-0.4350276299,-0.5017153352,-0.4892133448,0.8110755595,-0.4787943366,0.5690438724,0.2665470655,0.334542162,-0.2911760715,-0.6649102653,0.3824614141,-0.9339852778,0.9142167921,0.4633609407,1.0007694376,-0.4860162012,0.2970389714,-0.6602186038,-0.8699366373,-0.7992523262,0.0017345436,-0.4662931463,0.5346861122,-0.983853241,-0.748150271,0.2853021093,0.3156135396,0.1698646967,0.1904980429,-0.6057506342,0.2997875159,0.4027190158,-0.36341833,0.3040233801,-0.1605335726,-0.5335458349,0.370324826,-0.3932329879,0.2368420207,0.4473907192,-0.581076922,-0.7500519121,1.3716479849,0.6437136612,-0.3698878946,-1.2462453967,0.4190730038,-0.0468854625,-0.0949990633,0.2390512258,-0.1621870792,0.3148954518,0.7473886437,0.3430620453,-0.1274902363,0.6997118309,-0.1927079187,-0.4931284974,1.4948397319,-0.9698917833,-0.8075563321,0.5725880112,0.8226536312,1.515886882,1.499592423,-0.1154745348,0.2482770497,-1.6640315499,0.3314810654,0.8123449517,-1.0593046853,0.0474038939,-0.0341606113,-0.465600422,0.340701847,-0.397516697,-0.5304665814,-0.0940565762,-0.3670686667,0.1583398871,-0.5581389804,-0.6580155948,0.2544191847,0.2642952187,-0.530932851,-1.0352429075,0.325613414,-0.1880614827,-0.9268072673,0.457195373,-0.5796153485,-0.5556678062,0.8819932468,-0.9958308173,-0.315469635,0.0081675019,-0.3364490109,-0.5006809346,-0.1655383445,-0.5831778459,-0.0286098683,0.4760612274,0.2814606285,-0.727168664,0.2661508706,0.3264171571,0.3823340939,-0.5131339792,-0.7827023379,-0.6100479164,0.0028212637,0.8487330502,0.4846931011,-0.7467654775,-0.2757695345,0.203269254,-0.1672226144,-0.9289739123,0.7364265934,-0.2183243006,0.1193139889,-0.0691650993,0.8375816506,-0.0641345722,1.0713240067,-1.2971288485,0.1534078081,-1.2789359541,0.1528311043,0.7256306815,0.5575198625,0.6661052723,0.0701666256,0.0271295741,-0.3655546939,-0.4004170069,0.1932044026,0.3706032275,0.5073610691,-0.4884842627,-1.296660491,1.4089816527,1.7451115556,-1.1873369676,-0.4725565314,-0.4733526714,0.2670592556,-0.2103153877,-0.8964865289,0.3562338926,-0.3723549314,-1.2001202469,1.5603848829,-0.1487577397
biasActivation=1,1,1,1,1
[BASIC:ACTIVATION]
"org.encog.engine.network.activation.ActivationTANH"
"org.encog.engine.network.activation.ActivationTANH"
"org.encog.engine.network.activation.ActivationTANH"
"org.encog.engine.network.activation.ActivationTANH"
"org.encog.engine.network.activation.ActivationTANH"
