encog,BasicNetwork,java,3.4.0,1,1544143963669
[BASIC]
[BASIC:PARAMS]
[BASIC:NETWORK]
beginTraining=0
connectionLimit=0
contextTargetOffset=0,0,0,0,0
contextTargetSize=0,0,0,0,0
endTraining=4
hasContext=f
inputCount=2
layerCounts=2,11,11,11,3
layerFeedCounts=1,10,10,10,2
layerContextCount=0,0,0,0,0
layerIndex=0,2,13,24,35
output=-0.9987094107,1,-0.6348777447,-0.8897533382,-0.4991959795,-0.0353164763,-0.9103182455,-0.0279471635,-0.6624379255,0.9353425523,-0.763509009,0.9307493084,1,-0.0484227144,-0.7368271821,0.0184901307,0.1184564617,-0.2027710923,0.0204559785,-0.7658506572,0.3934128654,0.5802025066,-0.0040344007,1,-0.0005424436,-0.2180024827,0.9100352044,-0.7497868845,0.2463755091,-0.0732171968,-0.0093405873,-0.2162978847,0.0098942546,-0.013328259,1,0.9022108844,0.9452054795,1
outputCount=1
weightIndex=0,11,121,231,261
weights=0.1407026667,2.6504283519,1.2900711991,-0.6145935893,0.6480309428,0.0096418426,2.4546291755,0.2392481311,-0.3010569755,0.6088700064,0.5931498349,0.2329608334,0.6187349627,0.6145325177,-0.7648578614,-0.2697150941,0.1686054998,-0.4860861475,-0.166796313,-1.0506981342,-0.951427745,0.0378656283,2.2016182724,0.5260133477,3.2727179311,-0.4477096917,1.9015599876,1.1139284811,-0.5098438473,-0.2722791004,-0.1931719545,-1.3126268327,-0.747798345,-0.1724505433,-0.1022305601,-1.0937029829,0.8631166236,0.0702328988,0.6820730349,-0.0350511709,-0.1788769898,-0.0616492298,1.0963346593,-0.6299211319,0.5055483602,0.9128854963,0.3470449875,-0.5663396249,-0.3922589291,-0.865998433,0.0594028172,-0.3929349916,0.3197575103,-0.2335864191,0.6742463335,0.104646977,-0.1063129814,0.6236951906,-0.8856176535,-0.9485941531,0.8728084687,1.0395409904,-0.8673306793,-0.3693544491,0.1894813322,-0.3670555729,-0.6937250007,-0.9303369108,0.6881480575,0.7172016868,0.7490777206,0.6937203931,0.3993505519,-0.3028415275,0.1113103849,0.4530875463,-0.3447945502,-1.2796237411,0.6918979186,-1.9289851522,0.943048112,-0.2249013054,-0.281230921,0.1814431627,-0.6508324409,0.5055964073,1.2783356064,-0.3583795176,-0.5242349088,-0.8990399543,0.517484962,-0.2692289224,0.3073815847,0.0648734904,-0.9415317036,-0.7269905253,-0.3566944281,-0.712586968,0.8639856882,-0.3881228714,-0.2218263277,0.6758453898,0.2831065283,-0.2081041052,-0.3722029685,0.6182466856,-0.0216356097,-0.465170891,-0.4587309657,-0.5173940208,0.6273986354,-0.7045037847,0.4497829724,0.3133383643,0.3810625545,-0.1688767624,-0.8572773695,0.4388016778,-0.6661653969,1.0049370771,0.7719259644,1.6763678734,-0.5400026532,0.2914787962,-0.5823962919,-1.2617429815,-0.8463138007,0.684825819,-0.5867594654,0.0061010853,-1.8467523916,-0.763496936,0.3250998537,0.3089590716,0.087455456,0.2675424261,-0.6689681936,0.2186472256,0.4743133714,-0.3478605196,0.2677624619,-0.1975862197,-0.650227527,1.3867516093,-0.3499156421,0.2432067963,0.5416153504,-1.1178056206,-0.7396416516,2.2482268108,0.4608431139,-1.2465393491,-2.5076409779,0.4485670129,-0.5264547952,-0.2140323753,0.296415113,-0.2438237778,0.5301752606,0.5148393599,-0.0804354726,-0.0311414654,1.0902556246,0.3822983972,-0.4866001358,1.1911442897,-1.1319132994,-0.6766485742,0.4445926967,0.8317397565,0.7305284235,1.0194136687,0.0083320101,0.2925136844,-1.2926711198,0.3371570271,0.9029846613,-0.7654142777,-0.0646090399,0.0842834003,-0.6378848091,0.5725067243,-0.5632203226,-0.4724578573,-0.3853915193,-0.4568716221,0.0654254736,-0.7154331132,-0.3467329497,0.051318301,0.4026900749,-0.5843392174,-0.7334187721,0.1281198468,-0.0971218843,-0.8172482146,0.6241448527,-0.7440985032,-0.5286137541,0.6647855902,-0.7570371916,-0.5265261595,0.1364661822,-0.6405392404,-0.3282701176,-0.2570057344,-0.5743484961,-0.0888679736,0.7199395673,0.2253508553,-0.6782846212,0.1783993313,0.3869562256,0.3695652872,-0.4531332229,-0.7699161643,-0.5805233935,0.0448533744,0.901897076,0.3973979605,-1.2547033549,-0.2247474782,0.1955880152,-0.1797873652,-0.6836512562,0.861556868,-0.8279846403,0.2082369683,0.2734911562,1.501512449,-0.0803751107,1.6734741584,-2.0808226659,0.4564359415,-1.0894516069,-0.146097521,0.8994493146,0.7308044724,0.6786086266,0.2269649176,-0.0932918688,-0.4018991233,-0.5084219382,-0.5367861338,0.9390677306,-0.15176727,-1.2007698049,0.0980436688,0.9173277221,2.1956448299,-1.6425426769,-0.4377351843,-0.3582048045,0.2146938485,-0.0995225337,-0.9124352755,1.2359984506,-0.3351688937,-2.1795293235,2.6714222268,-0.5719768967
biasActivation=1,1,1,1,1
[BASIC:ACTIVATION]
"org.encog.engine.network.activation.ActivationTANH"
"org.encog.engine.network.activation.ActivationTANH"
"org.encog.engine.network.activation.ActivationTANH"
"org.encog.engine.network.activation.ActivationTANH"
"org.encog.engine.network.activation.ActivationTANH"
