encog,BasicNetwork,java,3.4.0,1,1544144516899
[BASIC]
[BASIC:PARAMS]
[BASIC:NETWORK]
beginTraining=0
connectionLimit=0
contextTargetOffset=0,0,0,0,0
contextTargetSize=0,0,0,0,0
endTraining=4
hasContext=f
inputCount=2
layerCounts=2,11,11,11,3
layerFeedCounts=1,10,10,10,2
layerContextCount=0,0,0,0,0
layerIndex=0,2,13,24,35
output=-0.8995712158,1,0.0200735126,-0.9090223669,0.7668416092,0.7930115696,0.705220647,0.9699954924,0.5140778639,0.7873687724,-0.9654085311,0.7280914606,1,0.7887637711,-0.7531163976,0.1429908712,-0.0711420999,0.0769402466,0.9037112158,-0.1514174576,-0.7603134188,0.9431217542,0.6852596924,1,0.4244759451,-0.7580376541,0.9291476587,-0.7907054695,0.136586111,0.1312537023,-0.1390396975,-0.4453939296,0.136406989,-0.2432309072,1,0.8132474701,1,1
outputCount=1
weightIndex=0,11,121,231,261
weights=-0.0185298484,0.8751486853,1.2150606841,-0.4589321166,0.9795720691,-0.8749596984,1.4131025306,-1.0068548616,1.0667914555,1.0420524846,-0.7464923071,0.3061697686,0.2508886368,0.568821529,-0.641915599,-0.1160233908,0.3156689976,-0.7362751577,-0.2178001262,-0.6358943627,-0.8915681117,0.4977789053,0.4447623487,0.6153465126,0.6382686216,0.1983863129,0.8300339663,0.3339415839,-0.3675165563,0.2676087552,-0.3589518133,-0.1680223864,-1.250561708,0.1416579225,-0.0393392655,-0.8754328179,0.927546133,0.2413048828,0.6627416346,0.1193784602,-0.260384276,-0.1182687378,1.663461706,-0.763332012,0.4116649181,0.6748217543,0.002704576,-0.464198298,-0.4760998551,-0.649070256,-0.1985544401,-0.4490763051,0.5762126679,-0.0718906804,0.9871217417,0.083464052,-0.1934194848,0.5581552452,-0.7503136976,-1.0177779015,0.7160230044,1.3042252292,-0.7705723476,-0.2864490603,0.3309810535,-0.380895066,-0.4705704191,-1.1069812384,0.7111687241,0.7012681497,0.8202421719,0.9027316163,0.3178699887,-0.4532965065,0.3096976814,0.3299112168,-0.1156904676,-0.0988620944,0.800618718,-0.6777759935,0.637655097,0.4783275357,-0.037464376,0.3945052273,-0.9631482896,0.4243848197,1.1478094461,-0.4708247979,-0.5663585051,-0.8590170009,0.363529284,-0.1605473641,0.333110083,0.0883932443,-1.2359034798,-0.7273974565,-0.3981285214,-0.7344225824,0.8339054091,-0.4658492886,-0.1651965742,0.6741571266,0.2461660921,-0.2587066388,-0.4362277843,0.6811159569,0.0339527074,-0.5368324899,-0.3008548322,-0.60023838,0.5720927529,-0.387487635,0.5294532988,0.2082183977,0.4079519889,-0.344032175,-0.7445155656,0.5590977837,-0.9941320604,1.819370662,0.4034112303,0.9536206937,-0.3817972252,0.3058267319,-0.6534070624,-0.93495476,-0.7052776737,-0.2415449188,-0.4105907919,0.5816189859,-0.9240518968,-0.7271466851,0.1461979249,0.2329214555,0.0589356878,0.2807896189,-0.503841795,-0.0756919432,0.3464764909,-0.2432052642,0.5854081185,-0.0320063064,-0.7673831929,0.2377192993,-0.0035887669,0.2457788498,0.4124600964,-0.7798324689,-0.3300359985,1.0692035638,0.6382114403,-0.735396022,-1.0574763484,0.5639728177,-0.2045629241,-0.3361160999,0.2066971874,-0.0846625392,0.3490869624,0.4880113585,0.249977244,-0.0140763828,0.9593650722,-0.0533859574,-0.7253101659,0.6387594656,-0.8526316874,-0.887753193,0.593150519,0.9079991862,1.0565571396,0.4759617177,0.2572087783,0.7322913542,-0.6776385395,0.1068162127,0.5861561167,-0.8119681275,0.0653308763,-0.0510705897,-0.4475723719,0.4673106243,-0.6831510458,-0.4793812707,-0.1423206288,-0.1184688552,0.2086044705,-0.4100887513,-0.7931536225,0.3639196801,0.1554541061,-0.417814855,-1.3489847862,0.3360367428,-0.3599166837,-0.7994355955,0.3025722228,-0.4917868314,-0.5898260365,0.8775322395,-0.9773242941,-0.3609248245,-0.0265494593,-0.2804324554,-0.4379806161,-0.1965617914,-0.7192226824,0.0355577589,0.5400510057,0.4246084505,-0.7738716223,0.3663099798,0.2489716961,0.3396530247,-0.368660769,-0.6878231777,-0.7270505929,-0.1597279054,0.7088601384,0.6319586572,-0.5806847808,-0.3103427402,0.4869415847,-0.2327090824,-1.5268988858,2.7896331243,-0.6058031123,0.0770375808,-0.8770705887,0.6898599936,0.2936725218,0.6490784828,-0.1478169496,0.0730946364,-0.9295056093,-0.8823410414,0.6466734377,0.775658979,0.800231683,0.2210833873,-0.1973850605,-0.3048185898,-0.6079697298,-0.106316853,0.9693307523,-0.7454237208,-1.2585940032,-1.5004472165,2.6560109218,1.2506700544,-0.2681149936,-0.8889354734,-0.6006300008,0.1384207491,-0.1288994707,-0.9083941099,1.4121169805,-0.5361051715,-0.6237258954,0.2235293731,0.035508802
biasActivation=1,1,1,1,1
[BASIC:ACTIVATION]
"org.encog.engine.network.activation.ActivationTANH"
"org.encog.engine.network.activation.ActivationTANH"
"org.encog.engine.network.activation.ActivationTANH"
"org.encog.engine.network.activation.ActivationTANH"
"org.encog.engine.network.activation.ActivationTANH"
